<?xml version="1.0"?>
<opencv_storage>
<cascade>
  <stageType>BOOST</stageType>
  <featureType>HAAR</featureType>
  <height>24</height>
  <width>24</width>
  <stageParams>
    <boostType>GAB</boostType>
    <minHitRate>9.9500000476837158e-01</minHitRate>
    <maxFalseAlarm>5.0000000000000000e-01</maxFalseAlarm>
    <weightTrimRate>9.4999999999999996e-01</weightTrimRate>
    <maxDepth>1</maxDepth>
    <maxWeakCount>100</maxWeakCount></stageParams>
  <featureParams>
    <maxCatCount>0</maxCatCount>
    <featSize>1</featSize>
    <mode>BASIC</mode></featureParams>
  <stageNum>12</stageNum>
  <stages>
    <!-- stage 0 -->
    <_>
      <maxWeakCount>4</maxWeakCount>
      <stageThreshold>-6.1143428087234497e-01</stageThreshold>
      <weakClassifiers>
        <_>
          <internalNodes>
            0 -1 60 -7.6228268444538116e-03</internalNodes>
          <leafValues>
            7.1428573131561279e-01 -4.5454546809196472e-01</leafValues></_>
        <_>
          <internalNodes>
            0 -1 61 -9.1948948102071881e-04</internalNodes>
          <leafValues>
            7.2014039754867554e-01 -4.0214809775352478e-01</leafValues></_>
        <_>
          <internalNodes>
            0 -1 65 -1.3171313330531120e-03</internalNodes>
          <leafValues>
            7.1262753009796143e-01 -4.5804339647293091e-01</leafValues></_>
        <_>
          <internalNodes>
            0 -1 52 -1.4691367687191814e-04</internalNodes>
          <leafValues>
            8.2301521301269531e-01 -4.1898584365844727e-01</leafValues></_></weakClassifiers></_>
    <!-- stage 1 -->
    <_>
      <maxWeakCount>7</maxWeakCount>
      <stageThreshold>-3.3397316932678223e-01</stageThreshold>
      <weakClassifiers>
        <_>
          <internalNodes>
            0 -1 8 2.9014453291893005e-02</internalNodes>
          <leafValues>
            -3.1623932719230652e-01 6.5413534641265869e-01</leafValues></_>
        <_>
          <internalNodes>
            0 -1 28 1.0449039837112650e-04</internalNodes>
          <leafValues>
            -2.7389878034591675e-01 7.4026739597320557e-01</leafValues></_>
        <_>
          <internalNodes>
            0 -1 67 3.5405722883297130e-05</internalNodes>
          <leafValues>
            -3.8412630558013916e-01 6.7239862680435181e-01</leafValues></_>
        <_>
          <internalNodes>
            0 -1 24 -1.3889051842852496e-05</internalNodes>
          <leafValues>
            6.4356577396392822e-01 -4.0512061119079590e-01</leafValues></_>
        <_>
          <internalNodes>
            0 -1 44 -3.3092633821070194e-03</internalNodes>
          <leafValues>
            6.8303054571151733e-01 -4.0445560216903687e-01</leafValues></_>
        <_>
          <internalNodes>
            0 -1 68 5.0944596296176314e-05</internalNodes>
          <leafValues>
            -3.0648913979530334e-01 7.5996828079223633e-01</leafValues></_>
        <_>
          <internalNodes>
            0 -1 49 2.3216376081109047e-02</internalNodes>
          <leafValues>
            -2.7054303884506226e-01 7.7111691236495972e-01</leafValues></_></weakClassifiers></_>
    <!-- stage 2 -->
    <_>
      <maxWeakCount>5</maxWeakCount>
      <stageThreshold>-3.7047380208969116e-01</stageThreshold>
      <weakClassifiers>
        <_>
          <internalNodes>
            0 -1 4 1.2976801395416260e-01</internalNodes>
          <leafValues>
            -3.5294118523597717e-01 8.5964912176132202e-01</leafValues></_>
        <_>
          <internalNodes>
            0 -1 5 6.1359979212284088e-02</internalNodes>
          <leafValues>
            -1.6950508952140808e-01 9.1857624053955078e-01</leafValues></_>
        <_>
          <internalNodes>
            0 -1 37 5.0655461847782135e-02</internalNodes>
          <leafValues>
            -2.8492233157157898e-01 8.9234906435012817e-01</leafValues></_>
        <_>
          <internalNodes>
            0 -1 30 3.4537208266556263e-03</internalNodes>
          <leafValues>
            -3.1265649199485779e-01 6.9308650493621826e-01</leafValues></_>
        <_>
          <internalNodes>
            0 -1 21 8.3893546834588051e-03</internalNodes>
          <leafValues>
            -2.5619170069694519e-01 8.1792449951171875e-01</leafValues></_></weakClassifiers></_>
    <!-- stage 3 -->
    <_>
      <maxWeakCount>7</maxWeakCount>
      <stageThreshold>-4.2282122373580933e-01</stageThreshold>
      <weakClassifiers>
        <_>
          <internalNodes>
            0 -1 7 1.6970826685428619e-01</internalNodes>
          <leafValues>
            -1.9254659116268158e-01 9.1011238098144531e-01</leafValues></_>
        <_>
          <internalNodes>
            0 -1 26 3.3863724675029516e-03</internalNodes>
          <leafValues>
            3.5468333959579468e-01 -7.4085354804992676e-01</leafValues></_>
        <_>
          <internalNodes>
            0 -1 58 -7.5734362006187439e-02</internalNodes>
          <leafValues>
            6.2060451507568359e-01 -3.3121883869171143e-01</leafValues></_>
        <_>
          <internalNodes>
            0 -1 74 2.5864511262625456e-03</internalNodes>
          <leafValues>
            2.6956361532211304e-01 -9.0102088451385498e-01</leafValues></_>
        <_>
          <internalNodes>
            0 -1 41 7.4310742318630219e-02</internalNodes>
          <leafValues>
            -2.7834942936897278e-01 8.6420941352844238e-01</leafValues></_>
        <_>
          <internalNodes>
            0 -1 38 4.8502716235816479e-03</internalNodes>
          <leafValues>
            4.7191867232322693e-01 -5.9080028533935547e-01</leafValues></_>
        <_>
          <internalNodes>
            0 -1 73 -3.9622350595891476e-04</internalNodes>
          <leafValues>
            -4.9811089038848877e-01 4.3819761276245117e-01</leafValues></_></weakClassifiers></_>
    <!-- stage 4 -->
    <_>
      <maxWeakCount>7</maxWeakCount>
      <stageThreshold>-4.2351496219635010e-01</stageThreshold>
      <weakClassifiers>
        <_>
          <internalNodes>
            0 -1 20 1.0213387012481689e-01</internalNodes>
          <leafValues>
            -2.2535210847854614e-01 7.5925928354263306e-01</leafValues></_>
        <_>
          <internalNodes>
            0 -1 13 7.3113277554512024e-02</internalNodes>
          <leafValues>
            -2.3078626394271851e-01 7.9720175266265869e-01</leafValues></_>
        <_>
          <internalNodes>
            0 -1 69 -1.0267684410791844e-04</internalNodes>
          <leafValues>
            6.3496744632720947e-01 -2.9399672150611877e-01</leafValues></_>
        <_>
          <internalNodes>
            0 -1 57 -8.0764815211296082e-02</internalNodes>
          <leafValues>
            6.2791681289672852e-01 -3.4116858243942261e-01</leafValues></_>
        <_>
          <internalNodes>
            0 -1 46 -9.3414832372218370e-04</internalNodes>
          <leafValues>
            7.7121138572692871e-01 -3.1604057550430298e-01</leafValues></_>
        <_>
          <internalNodes>
            0 -1 47 -1.2745965796057135e-04</internalNodes>
          <leafValues>
            5.4067492485046387e-01 -4.0745821595191956e-01</leafValues></_>
        <_>
          <internalNodes>
            0 -1 18 5.6553522881586105e-05</internalNodes>
          <leafValues>
            -4.8580983281135559e-01 4.9812179803848267e-01</leafValues></_></weakClassifiers></_>
    <!-- stage 5 -->
    <_>
      <maxWeakCount>6</maxWeakCount>
      <stageThreshold>-8.5577708482742310e-01</stageThreshold>
      <weakClassifiers>
        <_>
          <internalNodes>
            0 -1 71 -3.8918014615774155e-02</internalNodes>
          <leafValues>
            6.3200002908706665e-01 -2.3199999332427979e-01</leafValues></_>
        <_>
          <internalNodes>
            0 -1 29 6.0230551753193140e-04</internalNodes>
          <leafValues>
            -2.5401398539543152e-01 6.0196542739868164e-01</leafValues></_>
        <_>
          <internalNodes>
            0 -1 31 -1.4363036025315523e-03</internalNodes>
          <leafValues>
            5.3935980796813965e-01 -3.1212523579597473e-01</leafValues></_>
        <_>
          <internalNodes>
            0 -1 63 4.9878107383847237e-03</internalNodes>
          <leafValues>
            -4.5045197010040283e-01 4.3382009863853455e-01</leafValues></_>
        <_>
          <internalNodes>
            0 -1 54 -8.2841556286439300e-04</internalNodes>
          <leafValues>
            6.7727041244506836e-01 -3.3245861530303955e-01</leafValues></_>
        <_>
          <internalNodes>
            0 -1 51 -2.8972434811294079e-03</internalNodes>
          <leafValues>
            6.8644732236862183e-01 -2.8445628285408020e-01</leafValues></_></weakClassifiers></_>
    <!-- stage 6 -->
    <_>
      <maxWeakCount>3</maxWeakCount>
      <stageThreshold>-4.8731261491775513e-01</stageThreshold>
      <weakClassifiers>
        <_>
          <internalNodes>
            0 -1 50 -5.2563004195690155e-02</internalNodes>
          <leafValues>
            8.1818181276321411e-01 -3.7984496355056763e-01</leafValues></_>
        <_>
          <internalNodes>
            0 -1 6 3.7618905305862427e-02</internalNodes>
          <leafValues>
            -3.7003457546234131e-01 7.2087800502777100e-01</leafValues></_>
        <_>
          <internalNodes>
            0 -1 10 -1.9090721011161804e-01</internalNodes>
          <leafValues>
            -9.3545985221862793e-01 3.1685149669647217e-01</leafValues></_></weakClassifiers></_>
    <!-- stage 7 -->
    <_>
      <maxWeakCount>7</maxWeakCount>
      <stageThreshold>-3.2378241419792175e-01</stageThreshold>
      <weakClassifiers>
        <_>
          <internalNodes>
            0 -1 56 -3.4406520426273346e-02</internalNodes>
          <leafValues>
            7.5555557012557983e-01 -1.1249999701976776e-01</leafValues></_>
        <_>
          <internalNodes>
            0 -1 43 -3.5908522550016642e-03</internalNodes>
          <leafValues>
            6.9749540090560913e-01 -1.6450306773185730e-01</leafValues></_>
        <_>
          <internalNodes>
            0 -1 62 -9.4274594448506832e-04</internalNodes>
          <leafValues>
            7.5709426403045654e-01 -2.1825820207595825e-01</leafValues></_>
        <_>
          <internalNodes>
            0 -1 32 4.0655873715877533e-02</internalNodes>
          <leafValues>
            -3.0859401822090149e-01 5.9399354457855225e-01</leafValues></_>
        <_>
          <internalNodes>
            0 -1 14 -1.8947701901197433e-02</internalNodes>
          <leafValues>
            7.4323153495788574e-01 -2.5536966323852539e-01</leafValues></_>
        <_>
          <internalNodes>
            0 -1 80 -5.9055481106042862e-03</internalNodes>
          <leafValues>
            -8.0145263671875000e-01 2.6134815812110901e-01</leafValues></_>
        <_>
          <internalNodes>
            0 -1 42 -2.2540498524904251e-02</internalNodes>
          <leafValues>
            9.0344041585922241e-01 -1.9315885007381439e-01</leafValues></_></weakClassifiers></_>
    <!-- stage 8 -->
    <_>
      <maxWeakCount>8</maxWeakCount>
      <stageThreshold>-4.2883339524269104e-01</stageThreshold>
      <weakClassifiers>
        <_>
          <internalNodes>
            0 -1 3 5.0559476017951965e-02</internalNodes>
          <leafValues>
            -2.8813558816909790e-01 6.3636362552642822e-01</leafValues></_>
        <_>
          <internalNodes>
            0 -1 77 -8.7338092271238565e-04</internalNodes>
          <leafValues>
            -8.3664572238922119e-01 2.0731168985366821e-01</leafValues></_>
        <_>
          <internalNodes>
            0 -1 35 2.0897435024380684e-03</internalNodes>
          <leafValues>
            -2.4466353654861450e-01 6.0319691896438599e-01</leafValues></_>
        <_>
          <internalNodes>
            0 -1 1 1.1522544920444489e-01</internalNodes>
          <leafValues>
            -2.4265202879905701e-01 8.3587551116943359e-01</leafValues></_>
        <_>
          <internalNodes>
            0 -1 16 -5.4526072926819324e-04</internalNodes>
          <leafValues>
            -4.9120470881462097e-01 3.4809502959251404e-01</leafValues></_>
        <_>
          <internalNodes>
            0 -1 39 -1.3372567482292652e-03</internalNodes>
          <leafValues>
            5.7730764150619507e-01 -3.0353027582168579e-01</leafValues></_>
        <_>
          <internalNodes>
            0 -1 45 1.0838159359991550e-03</internalNodes>
          <leafValues>
            -4.2310568690299988e-01 4.2764869332313538e-01</leafValues></_>
        <_>
          <internalNodes>
            0 -1 12 2.0383112132549286e-02</internalNodes>
          <leafValues>
            -3.1076321005821228e-01 5.1784700155258179e-01</leafValues></_></weakClassifiers></_>
    <!-- stage 9 -->
    <_>
      <maxWeakCount>9</maxWeakCount>
      <stageThreshold>-6.2361443042755127e-01</stageThreshold>
      <weakClassifiers>
        <_>
          <internalNodes>
            0 -1 9 -4.3225262314081192e-02</internalNodes>
          <leafValues>
            7.6470589637756348e-01 -9.0909093618392944e-02</leafValues></_>
        <_>
          <internalNodes>
            0 -1 22 -1.5517516992986202e-02</internalNodes>
          <leafValues>
            -9.3900603055953979e-01 2.2109606862068176e-01</leafValues></_>
        <_>
          <internalNodes>
            0 -1 59 7.7655471861362457e-02</internalNodes>
          <leafValues>
            -1.6997131705284119e-01 8.5501861572265625e-01</leafValues></_>
        <_>
          <internalNodes>
            0 -1 19 -5.4977908730506897e-03</internalNodes>
          <leafValues>
            -8.1332606077194214e-01 1.7470550537109375e-01</leafValues></_>
        <_>
          <internalNodes>
            0 -1 36 4.7091908752918243e-02</internalNodes>
          <leafValues>
            -3.6987060308456421e-01 4.1814616322517395e-01</leafValues></_>
        <_>
          <internalNodes>
            0 -1 34 -7.5836817268282175e-04</internalNodes>
          <leafValues>
            7.4889332056045532e-01 -1.9774250686168671e-01</leafValues></_>
        <_>
          <internalNodes>
            0 -1 70 -3.1497739255428314e-03</internalNodes>
          <leafValues>
            5.8580917119979858e-01 -2.2365827858448029e-01</leafValues></_>
        <_>
          <internalNodes>
            0 -1 23 4.6675493940711021e-03</internalNodes>
          <leafValues>
            -2.1452781558036804e-01 7.2118455171585083e-01</leafValues></_>
        <_>
          <internalNodes>
            0 -1 48 -6.7290454171597958e-03</internalNodes>
          <leafValues>
            -7.2869825363159180e-01 2.4726361036300659e-01</leafValues></_></weakClassifiers></_>
    <!-- stage 10 -->
    <_>
      <maxWeakCount>8</maxWeakCount>
      <stageThreshold>-5.4917138814926147e-01</stageThreshold>
      <weakClassifiers>
        <_>
          <internalNodes>
            0 -1 40 6.3187023624777794e-03</internalNodes>
          <leafValues>
            4.2105263471603394e-01 -5.0000000000000000e-01</leafValues></_>
        <_>
          <internalNodes>
            0 -1 55 -1.4598343521356583e-02</internalNodes>
          <leafValues>
            5.1639932394027710e-01 -3.4102723002433777e-01</leafValues></_>
        <_>
          <internalNodes>
            0 -1 75 1.0905115632340312e-03</internalNodes>
          <leafValues>
            2.8198656439781189e-01 -6.3204354047775269e-01</leafValues></_>
        <_>
          <internalNodes>
            0 -1 2 1.2990835309028625e-01</internalNodes>
          <leafValues>
            -2.4761532247066498e-01 6.9343441724777222e-01</leafValues></_>
        <_>
          <internalNodes>
            0 -1 11 1.2420443817973137e-03</internalNodes>
          <leafValues>
            -4.1775825619697571e-01 4.2881181836128235e-01</leafValues></_>
        <_>
          <internalNodes>
            0 -1 66 -1.5108388848602772e-02</internalNodes>
          <leafValues>
            8.7597066164016724e-01 -2.1160417795181274e-01</leafValues></_>
        <_>
          <internalNodes>
            0 -1 78 8.1623657024465501e-05</internalNodes>
          <leafValues>
            3.8484239578247070e-01 -5.2204048633575439e-01</leafValues></_>
        <_>
          <internalNodes>
            0 -1 27 -1.2643167283385992e-03</internalNodes>
          <leafValues>
            5.1057624816894531e-01 -3.5873520374298096e-01</leafValues></_></weakClassifiers></_>
    <!-- stage 11 -->
    <_>
      <maxWeakCount>10</maxWeakCount>
      <stageThreshold>-5.3724795579910278e-01</stageThreshold>
      <weakClassifiers>
        <_>
          <internalNodes>
            0 -1 33 -2.0224275067448616e-02</internalNodes>
          <leafValues>
            4.7499999403953552e-01 -2.8888890147209167e-01</leafValues></_>
        <_>
          <internalNodes>
            0 -1 53 4.8527931794524193e-03</internalNodes>
          <leafValues>
            1.7232179641723633e-01 -9.2011010646820068e-01</leafValues></_>
        <_>
          <internalNodes>
            0 -1 25 -6.1268508434295654e-02</internalNodes>
          <leafValues>
            8.6439156532287598e-01 -1.8879376351833344e-01</leafValues></_>
        <_>
          <internalNodes>
            0 -1 79 2.7415270451456308e-03</internalNodes>
          <leafValues>
            2.1789023280143738e-01 -6.0143887996673584e-01</leafValues></_>
        <_>
          <internalNodes>
            0 -1 15 -1.0729445784818381e-04</internalNodes>
          <leafValues>
            6.2158179283142090e-01 -2.8077006340026855e-01</leafValues></_>
        <_>
          <internalNodes>
            0 -1 76 -3.6930578062310815e-04</internalNodes>
          <leafValues>
            5.5455821752548218e-01 -2.8046223521232605e-01</leafValues></_>
        <_>
          <internalNodes>
            0 -1 0 -4.5610130764544010e-03</internalNodes>
          <leafValues>
            -8.4317374229431152e-01 2.1895386278629303e-01</leafValues></_>
        <_>
          <internalNodes>
            0 -1 64 2.0267235115170479e-02</internalNodes>
          <leafValues>
            -2.1474774181842804e-01 7.9868912696838379e-01</leafValues></_>
        <_>
          <internalNodes>
            0 -1 72 4.4130143942311406e-04</internalNodes>
          <leafValues>
            -2.4883735179901123e-01 6.0691344738006592e-01</leafValues></_>
        <_>
          <internalNodes>
            0 -1 17 7.2556606028228998e-04</internalNodes>
          <leafValues>
            -3.5911196470260620e-01 4.6104347705841064e-01</leafValues></_></weakClassifiers></_></stages>
  <features>
    <_>
      <rects>
        <_>
          0 0 4 3 -1.</_>
        <_>
          2 0 2 3 2.</_></rects>
      <tilted>0</tilted></_>
    <_>
      <rects>
        <_>
          0 0 10 15 -1.</_>
        <_>
          5 0 5 15 2.</_></rects>
      <tilted>0</tilted></_>
    <_>
      <rects>
        <_>
          0 0 16 10 -1.</_>
        <_>
          0 5 16 5 2.</_></rects>
      <tilted>0</tilted></_>
    <_>
      <rects>
        <_>
          0 2 12 15 -1.</_>
        <_>
          6 2 6 15 2.</_></rects>
      <tilted>0</tilted></_>
    <_>
      <rects>
        <_>
          0 2 24 12 -1.</_>
        <_>
          8 2 8 12 3.</_></rects>
      <tilted>0</tilted></_>
    <_>
      <rects>
        <_>
          0 3 12 19 -1.</_>
        <_>
          4 3 4 19 3.</_></rects>
      <tilted>0</tilted></_>
    <_>
      <rects>
        <_>
          0 4 18 7 -1.</_>
        <_>
          9 4 9 7 2.</_></rects>
      <tilted>0</tilted></_>
    <_>
      <rects>
        <_>
          0 5 24 8 -1.</_>
        <_>
          8 5 8 8 3.</_></rects>
      <tilted>0</tilted></_>
    <_>
      <rects>
        <_>
          0 6 14 6 -1.</_>
        <_>
          7 6 7 6 2.</_></rects>
      <tilted>0</tilted></_>
    <_>
      <rects>
        <_>
          0 8 12 12 -1.</_>
        <_>
          0 8 6 6 2.</_>
        <_>
          6 14 6 6 2.</_></rects>
      <tilted>0</tilted></_>
    <_>
      <rects>
        <_>
          0 11 24 12 -1.</_>
        <_>
          0 15 24 4 3.</_></rects>
      <tilted>0</tilted></_>
    <_>
      <rects>
        <_>
          0 19 8 5 -1.</_>
        <_>
          4 19 4 5 2.</_></rects>
      <tilted>0</tilted></_>
    <_>
      <rects>
        <_>
          1 0 20 10 -1.</_>
        <_>
          11 0 10 10 2.</_></rects>
      <tilted>0</tilted></_>
    <_>
      <rects>
        <_>
          1 1 10 13 -1.</_>
        <_>
          6 1 5 13 2.</_></rects>
      <tilted>0</tilted></_>
    <_>
      <rects>
        <_>
          1 3 6 14 -1.</_>
        <_>
          1 3 3 7 2.</_>
        <_>
          4 10 3 7 2.</_></rects>
      <tilted>0</tilted></_>
    <_>
      <rects>
        <_>
          1 9 2 2 -1.</_>
        <_>
          1 9 1 1 2.</_>
        <_>
          2 10 1 1 2.</_></rects>
      <tilted>0</tilted></_>
    <_>
      <rects>
        <_>
          1 10 2 2 -1.</_>
        <_>
          2 10 1 2 2.</_></rects>
      <tilted>0</tilted></_>
    <_>
      <rects>
        <_>
          1 19 10 4 -1.</_>
        <_>
          1 19 5 2 2.</_>
        <_>
          6 21 5 2 2.</_></rects>
      <tilted>0</tilted></_>
    <_>
      <rects>
        <_>
          1 20 4 4 -1.</_>
        <_>
          3 20 2 4 2.</_></rects>
      <tilted>0</tilted></_>
    <_>
      <rects>
        <_>
          1 20 12 3 -1.</_>
        <_>
          1 21 12 1 3.</_></rects>
      <tilted>0</tilted></_>
    <_>
      <rects>
        <_>
          2 0 22 12 -1.</_>
        <_>
          2 6 22 6 2.</_></rects>
      <tilted>0</tilted></_>
    <_>
      <rects>
        <_>
          2 8 6 5 -1.</_>
        <_>
          4 8 2 5 3.</_></rects>
      <tilted>0</tilted></_>
    <_>
      <rects>
        <_>
          3 15 21 3 -1.</_>
        <_>
          3 16 21 1 3.</_></rects>
      <tilted>0</tilted></_>
    <_>
      <rects>
        <_>
          4 2 2 10 -1.</_>
        <_>
          5 2 1 10 2.</_></rects>
      <tilted>0</tilted></_>
    <_>
      <rects>
        <_>
          4 10 1 2 -1.</_>
        <_>
          4 11 1 1 2.</_></rects>
      <tilted>0</tilted></_>
    <_>
      <rects>
        <_>
          4 10 12 14 -1.</_>
        <_>
          8 10 4 14 3.</_></rects>
      <tilted>0</tilted></_>
    <_>
      <rects>
        <_>
          4 11 6 2 -1.</_>
        <_>
          4 11 3 1 2.</_>
        <_>
          7 12 3 1 2.</_></rects>
      <tilted>0</tilted></_>
    <_>
      <rects>
        <_>
          4 13 4 6 -1.</_>
        <_>
          4 15 4 2 3.</_></rects>
      <tilted>0</tilted></_>
    <_>
      <rects>
        <_>
          4 15 1 3 -1.</_>
        <_>
          4 16 1 1 3.</_></rects>
      <tilted>0</tilted></_>
    <_>
      <rects>
        <_>
          4 20 10 3 -1.</_>
        <_>
          4 21 10 1 3.</_></rects>
      <tilted>0</tilted></_>
    <_>
      <rects>
        <_>
          5 2 6 9 -1.</_>
        <_>
          7 2 2 9 3.</_></rects>
      <tilted>0</tilted></_>
    <_>
      <rects>
        <_>
          5 11 3 4 -1.</_>
        <_>
          5 13 3 2 2.</_></rects>
      <tilted>0</tilted></_>
    <_>
      <rects>
        <_>
          6 0 6 12 -1.</_>
        <_>
          6 6 6 6 2.</_></rects>
      <tilted>0</tilted></_>
    <_>
      <rects>
        <_>
          6 2 18 14 -1.</_>
        <_>
          15 2 9 14 2.</_></rects>
      <tilted>0</tilted></_>
    <_>
      <rects>
        <_>
          6 12 2 4 -1.</_>
        <_>
          6 12 1 2 2.</_>
        <_>
          7 14 1 2 2.</_></rects>
      <tilted>0</tilted></_>
    <_>
      <rects>
        <_>
          6 14 16 1 -1.</_>
        <_>
          14 14 8 1 2.</_></rects>
      <tilted>0</tilted></_>
    <_>
      <rects>
        <_>
          7 1 12 17 -1.</_>
        <_>
          11 1 4 17 3.</_></rects>
      <tilted>0</tilted></_>
    <_>
      <rects>
        <_>
          7 5 12 13 -1.</_>
        <_>
          11 5 4 13 3.</_></rects>
      <tilted>0</tilted></_>
    <_>
      <rects>
        <_>
          7 6 10 9 -1.</_>
        <_>
          7 9 10 3 3.</_></rects>
      <tilted>0</tilted></_>
    <_>
      <rects>
        <_>
          7 16 4 6 -1.</_>
        <_>
          7 16 2 3 2.</_>
        <_>
          9 19 2 3 2.</_></rects>
      <tilted>0</tilted></_>
    <_>
      <rects>
        <_>
          8 0 10 2 -1.</_>
        <_>
          13 0 5 2 2.</_></rects>
      <tilted>0</tilted></_>
    <_>
      <rects>
        <_>
          8 2 8 10 -1.</_>
        <_>
          8 7 8 5 2.</_></rects>
      <tilted>0</tilted></_>
    <_>
      <rects>
        <_>
          8 6 8 9 -1.</_>
        <_>
          8 9 8 3 3.</_></rects>
      <tilted>0</tilted></_>
    <_>
      <rects>
        <_>
          8 9 2 14 -1.</_>
        <_>
          8 9 1 7 2.</_>
        <_>
          9 16 1 7 2.</_></rects>
      <tilted>0</tilted></_>
    <_>
      <rects>
        <_>
          8 14 4 4 -1.</_>
        <_>
          8 16 4 2 2.</_></rects>
      <tilted>0</tilted></_>
    <_>
      <rects>
        <_>
          8 18 3 6 -1.</_>
        <_>
          8 21 3 3 2.</_></rects>
      <tilted>0</tilted></_>
    <_>
      <rects>
        <_>
          9 4 3 4 -1.</_>
        <_>
          10 4 1 4 3.</_></rects>
      <tilted>0</tilted></_>
    <_>
      <rects>
        <_>
          9 14 2 2 -1.</_>
        <_>
          9 15 2 1 2.</_></rects>
      <tilted>0</tilted></_>
    <_>
      <rects>
        <_>
          9 22 9 2 -1.</_>
        <_>
          12 22 3 2 3.</_></rects>
      <tilted>0</tilted></_>
    <_>
      <rects>
        <_>
          10 0 3 10 -1.</_>
        <_>
          10 5 3 5 2.</_></rects>
      <tilted>0</tilted></_>
    <_>
      <rects>
        <_>
          10 5 14 9 -1.</_>
        <_>
          17 5 7 9 2.</_></rects>
      <tilted>0</tilted></_>
    <_>
      <rects>
        <_>
          10 5 10 3 -1.</_>
        <_>
          10 6 10 1 3.</_></rects>
      <tilted>0</tilted></_>
    <_>
      <rects>
        <_>
          10 7 1 2 -1.</_>
        <_>
          10 8 1 1 2.</_></rects>
      <tilted>0</tilted></_>
    <_>
      <rects>
        <_>
          10 23 6 1 -1.</_>
        <_>
          12 23 2 1 3.</_></rects>
      <tilted>0</tilted></_>
    <_>
      <rects>
        <_>
          11 6 4 2 -1.</_>
        <_>
          11 7 4 1 2.</_></rects>
      <tilted>0</tilted></_>
    <_>
      <rects>
        <_>
          11 11 4 8 -1.</_>
        <_>
          11 15 4 4 2.</_></rects>
      <tilted>0</tilted></_>
    <_>
      <rects>
        <_>
          12 0 12 10 -1.</_>
        <_>
          12 0 6 5 2.</_>
        <_>
          18 5 6 5 2.</_></rects>
      <tilted>0</tilted></_>
    <_>
      <rects>
        <_>
          12 0 12 12 -1.</_>
        <_>
          18 0 6 12 2.</_></rects>
      <tilted>0</tilted></_>
    <_>
      <rects>
        <_>
          12 1 12 13 -1.</_>
        <_>
          18 1 6 13 2.</_></rects>
      <tilted>0</tilted></_>
    <_>
      <rects>
        <_>
          12 5 12 13 -1.</_>
        <_>
          16 5 4 13 3.</_></rects>
      <tilted>0</tilted></_>
    <_>
      <rects>
        <_>
          12 8 12 3 -1.</_>
        <_>
          18 8 6 3 2.</_></rects>
      <tilted>0</tilted></_>
    <_>
      <rects>
        <_>
          12 13 2 4 -1.</_>
        <_>
          12 15 2 2 2.</_></rects>
      <tilted>0</tilted></_>
    <_>
      <rects>
        <_>
          12 16 2 4 -1.</_>
        <_>
          12 16 1 2 2.</_>
        <_>
          13 18 1 2 2.</_></rects>
      <tilted>0</tilted></_>
    <_>
      <rects>
        <_>
          13 1 2 10 -1.</_>
        <_>
          13 6 2 5 2.</_></rects>
      <tilted>0</tilted></_>
    <_>
      <rects>
        <_>
          13 3 1 15 -1.</_>
        <_>
          13 8 1 5 3.</_></rects>
      <tilted>0</tilted></_>
    <_>
      <rects>
        <_>
          13 9 2 6 -1.</_>
        <_>
          13 12 2 3 2.</_></rects>
      <tilted>0</tilted></_>
    <_>
      <rects>
        <_>
          13 11 6 9 -1.</_>
        <_>
          15 11 2 9 3.</_></rects>
      <tilted>0</tilted></_>
    <_>
      <rects>
        <_>
          13 22 1 2 -1.</_>
        <_>
          13 23 1 1 2.</_></rects>
      <tilted>0</tilted></_>
    <_>
      <rects>
        <_>
          14 2 2 2 -1.</_>
        <_>
          14 2 1 1 2.</_>
        <_>
          15 3 1 1 2.</_></rects>
      <tilted>0</tilted></_>
    <_>
      <rects>
        <_>
          15 4 1 2 -1.</_>
        <_>
          15 5 1 1 2.</_></rects>
      <tilted>0</tilted></_>
    <_>
      <rects>
        <_>
          15 5 6 4 -1.</_>
        <_>
          15 5 3 2 2.</_>
        <_>
          18 7 3 2 2.</_></rects>
      <tilted>0</tilted></_>
    <_>
      <rects>
        <_>
          16 0 8 24 -1.</_>
        <_>
          20 0 4 24 2.</_></rects>
      <tilted>0</tilted></_>
    <_>
      <rects>
        <_>
          17 1 7 3 -1.</_>
        <_>
          17 2 7 1 3.</_></rects>
      <tilted>0</tilted></_>
    <_>
      <rects>
        <_>
          18 2 5 6 -1.</_>
        <_>
          18 4 5 2 3.</_></rects>
      <tilted>0</tilted></_>
    <_>
      <rects>
        <_>
          18 21 6 2 -1.</_>
        <_>
          18 21 3 1 2.</_>
        <_>
          21 22 3 1 2.</_></rects>
      <tilted>0</tilted></_>
    <_>
      <rects>
        <_>
          19 2 3 3 -1.</_>
        <_>
          20 2 1 3 3.</_></rects>
      <tilted>0</tilted></_>
    <_>
      <rects>
        <_>
          21 16 3 4 -1.</_>
        <_>
          22 16 1 4 3.</_></rects>
      <tilted>0</tilted></_>
    <_>
      <rects>
        <_>
          21 21 1 2 -1.</_>
        <_>
          21 22 1 1 2.</_></rects>
      <tilted>0</tilted></_>
    <_>
      <rects>
        <_>
          22 8 2 1 -1.</_>
        <_>
          23 8 1 1 2.</_></rects>
      <tilted>0</tilted></_>
    <_>
      <rects>
        <_>
          22 8 2 14 -1.</_>
        <_>
          23 8 1 14 2.</_></rects>
      <tilted>0</tilted></_>
    <_>
      <rects>
        <_>
          23 10 1 12 -1.</_>
        <_>
          23 14 1 4 3.</_></rects>
      <tilted>0</tilted></_></features></cascade>
</opencv_storage>
