<?xml version="1.0"?>
<opencv_storage>
<stage10>
  <maxWeakCount>8</maxWeakCount>
  <stageThreshold>-5.4917138814926147e-01</stageThreshold>
  <weakClassifiers>
    <_>
      <internalNodes>
        0 -1 90149 6.3187023624777794e-03</internalNodes>
      <leafValues>
        4.2105263471603394e-01 -5.0000000000000000e-01</leafValues></_>
    <_>
      <internalNodes>
        0 -1 119440 -1.4598343521356583e-02</internalNodes>
      <leafValues>
        5.1639932394027710e-01 -3.4102723002433777e-01</leafValues></_>
    <_>
      <internalNodes>
        0 -1 155621 1.0905115632340312e-03</internalNodes>
      <leafValues>
        2.8198656439781189e-01 -6.3204354047775269e-01</leafValues></_>
    <_>
      <internalNodes>
        0 -1 932 1.2990835309028625e-01</internalNodes>
      <leafValues>
        -2.4761532247066498e-01 6.9343441724777222e-01</leafValues></_>
    <_>
      <internalNodes>
        0 -1 12862 1.2420443817973137e-03</internalNodes>
      <leafValues>
        -4.1775825619697571e-01 4.2881181836128235e-01</leafValues></_>
    <_>
      <internalNodes>
        0 -1 132145 -1.5108388848602772e-02</internalNodes>
      <leafValues>
        8.7597066164016724e-01 -2.1160417795181274e-01</leafValues></_>
    <_>
      <internalNodes>
        0 -1 161692 8.1623657024465501e-05</internalNodes>
      <leafValues>
        3.8484239578247070e-01 -5.2204048633575439e-01</leafValues></_>
    <_>
      <internalNodes>
        0 -1 58233 -1.2643167283385992e-03</internalNodes>
      <leafValues>
        5.1057624816894531e-01 -3.5873520374298096e-01</leafValues></_></weakClassifiers></stage10>
</opencv_storage>
